12 30
system -0.0008368819 -0.00958831 0.013353284 0.0008503142 0.014745924 0.01609358 0.006145667 -0.013421888 0.0025318349 0.006304392 0.01032913 0.00068462046 -0.0053874566 -0.008197175 -0.01168365 -0.010463713 0.0029219836 0.0014354541 0.0032996049 -0.0011055093 -0.007305762 -0.010629955 0.01615149 -0.007944563 -0.011731045 0.008214151 0.0021823386 0.0014638285 -0.012171368 -0.011917295
user 0.011720892 -0.013700112 0.006774214 -0.0077981437 -0.008232657 0.014715454 0.011760511 -0.0119984 -0.014862476 -0.004911016 0.013061722 -0.008439417 -0.014354976 0.00014797611 -0.0035374328 0.004112435 -0.008906405 0.007482661 0.01116985 0.002069568 0.013708043 -0.016004307 -0.011242487 -0.006843901 -0.01483947 0.0072430256 0.014478597 -0.0019260169 0.007703577 -8.981864e-05
trees -0.00029425503 -0.01650494 0.012841612 -0.0048743933 -0.01022438 -0.009226619 0.0009263901 0.009207445 0.00029476747 -0.015992435 0.011189556 0.009786562 -0.012125563 -0.008276692 0.013374728 0.0072443364 0.004776658 -0.005971239 0.0041515497 -0.012379318 0.016483188 0.009088185 -0.0063118655 0.00918237 -0.015133909 0.0070042093 0.01149069 -0.0075231013 -0.0135640735 0.004958828
graph 0.0069752503 0.0060371426 -0.0019396886 0.011383681 -0.015738606 -0.0010377867 -0.00499049 0.0153243495 0.00035932366 -0.0092235515 0.0021242695 -0.00472813 0.012463133 -0.0041494 -0.0068132975 -0.016577927 -0.012291199 0.005372061 0.00064467674 0.011110112 0.016510613 -0.014094433 -0.012043938 0.0021302581 -0.015855085 0.0007054729 -0.0062204 0.012798461 -0.016045123 -0.010901406
human -0.0017925573 -0.014920492 -0.002344851 -0.012618354 -0.00089146424 -0.006511789 0.007099165 -0.008412244 -0.0031702176 0.015434674 -0.00028335137 -0.0005472377 0.014739448 0.0075201825 0.0028695958 0.0136451125 -0.0034349917 0.001655007 -0.013470323 0.001915185 0.0077541885 0.009288008 0.016152045 0.0068877144 -0.0069575696 0.0072095944 0.0020763534 -0.0013816942 0.011386749 0.0072985683
interface -0.015994247 -0.009764109 -0.003988088 0.015989952 -0.010055313 0.006260893 -0.0088662775 0.01595655 -0.0020550597 -0.011418808 -0.0015269239 -0.0020536052 0.0015805061 -0.0055584484 -0.016193146 -0.016359236 -0.0131031005 0.015865749 -0.0029566828 0.010236058 0.0031962553 -0.009979672 0.0064048404 -0.0013053678 0.0077553396 0.0031614453 -0.0075514824 0.008806823 -0.0024835062 -0.014672402
computer 0.011006692 -0.010055712 -0.009690031 0.008139149 -0.008515997 -0.0019479777 0.0020399182 0.0057814666 -0.006844127 -0.012199063 0.015231335 0.009163151 0.011686599 0.0032305284 0.0073455027 0.011545448 -0.008165325 0.013822969 0.011826515 0.0050912676 0.004736081 -0.00049644505 0.007761686 0.014115365 0.001304571 0.00095937384 0.0018589926 -0.013425239 -0.0045679607 -0.005231588
survey -0.011368967 0.015879411 -0.0047103274 0.015296182 -0.0018415324 -0.00057822996 0.012740905 -0.011785136 0.00051708805 -0.0013326122 0.015054089 0.00848461 0.007230486 0.010851998 -0.00652465 -0.0075764544 0.014178092 0.0033257247 -0.010542722 0.0083128465 0.00041205113 0.00935564 -0.012316377 -0.0021398067 -0.0037512816 -0.012439092 0.00029359452 -0.011784728 0.0038575502 -0.004634874
response -0.007510322 0.015019024 0.014863117 0.001954601 -0.00020070697 -0.009709777 0.013385328 0.000114450464 -0.0057267766 -0.00013538053 0.009028795 0.008055901 0.01412228 -0.010865722 0.0050928625 -0.008142845 0.011495121 -0.007495487 0.00025447595 -0.0003538351 -0.011379471 0.006745965 -0.00614654 -0.0022809077 -0.011680416 0.00091937877 -0.0061728917 -0.01523219 -0.0034169445 0.008060571
time -0.009129819 -0.0037088573 0.0035015645 0.015519899 0.016023621 -0.015748123 -0.01297625 -0.013343228 -0.015306645 -0.002674627 -0.003906155 -0.00789808 -0.006582067 -0.011528832 -0.014669101 0.010413552 -0.008735324 -0.00484776 -0.009870192 0.015833654 0.002369845 -0.0063887853 -0.013165874 0.00929321 -0.00097478053 0.016459506 -0.006089139 -0.014905898 -0.011382834 0.0067065563
eps 0.011878954 -0.0038193811 -0.0012995034 0.014129821 0.014954543 0.011882944 0.002268089 0.011401216 -0.01248313 0.00044607048 -0.006079548 -0.0013498917 -0.013269077 0.012992937 -0.012492084 -0.004577264 0.003207858 0.013364456 -0.0126418695 0.014577664 -0.0004308506 0.007841248 0.013473181 -0.00037681792 0.015504182 0.014282171 -0.014720194 0.01613375 -0.00033372748 -0.0043923827
minors 0.0059126453 -0.0019299705 -0.013281667 -0.004884379 -0.015268301 -0.0013585032 0.0018599364 -0.012479233 -0.00018289252 0.004290047 -0.008525369 0.011082306 0.01406161 0.011874999 0.013518968 -0.0047457605 -0.0050019627 0.00950092 -0.0003141189 0.000796635 0.006988482 0.0021019739 0.0135512855 0.01110324 0.015172842 -0.013503633 -0.0061773495 0.015070759 0.0006226795 -0.015487993
